<?xml version="1.0"?>
<opencv_storage>
<cascade>
  <stageType>BOOST</stageType>
  <featureType>LBP</featureType>
  <height>50</height>
  <width>50</width>
  <stageParams>
    <boostType>GAB</boostType>
    <minHitRate>9.9500000476837158e-01</minHitRate>
    <maxFalseAlarm>5.0000000000000000e-01</maxFalseAlarm>
    <weightTrimRate>9.4999999999999996e-01</weightTrimRate>
    <maxDepth>1</maxDepth>
    <maxWeakCount>100</maxWeakCount></stageParams>
  <featureParams>
    <maxCatCount>256</maxCatCount>
    <featSize>1</featSize></featureParams>
  <stageNum>15</stageNum>
  <stages>
    <!-- stage 0 -->
    <_>
      <maxWeakCount>8</maxWeakCount>
      <stageThreshold>-1.8650766611099243e+00</stageThreshold>
      <weakClassifiers>
        <_>
          <internalNodes>
            0 -1 46 -732629036 -168043265 4257621 -706741281 -269221889
            -2229505 -80216065 -1</internalNodes>
          <leafValues>
            -8.2555824518203735e-01 4.1391456127166748e-01</leafValues></_>
        <_>
          <internalNodes>
            0 -1 137 -600846336 -1001458857 -187241867 -269485073
            -598214908 -2657561 -229 -1</internalNodes>
          <leafValues>
            -7.0158243179321289e-01 3.5146963596343994e-01</leafValues></_>
        <_>
          <internalNodes>
            0 -1 23 -269484113 -1393627794 2147482352 -353437286
            -1073746945 -269353537 -2105353 -524809</internalNodes>
          <leafValues>
            -5.5275142192840576e-01 4.5075926184654236e-01</leafValues></_>
        <_>
          <internalNodes>
            0 -1 7 -134481921 -1069073 1878985275 724250296 -17409
            -8388609 -109115077 1073685055</internalNodes>
          <leafValues>
            -4.2650559544563293e-01 5.2817147970199585e-01</leafValues></_>
        <_>
          <internalNodes>
            0 -1 29 -956305685 1791921118 -287899986 549649988
            2046287189 -341607465 -109099777 -136053789</internalNodes>
          <leafValues>
            -5.1681828498840332e-01 4.2439115047454834e-01</leafValues></_>
        <_>
          <internalNodes>
            0 -1 69 -1342181397 -1429539846 -140512645 -320275566
            -1074301483 -1661009925 -356519980 -131039372</internalNodes>
          <leafValues>
            -5.0765681266784668e-01 3.8532388210296631e-01</leafValues></_>
        <_>
          <internalNodes>
            0 -1 124 -1894252673 -1398020100 -67633281 -1134887946
            1807477237 -404751382 -1690944556 -830707276</internalNodes>
          <leafValues>
            -4.6821087598800659e-01 4.0149387717247009e-01</leafValues></_>
        <_>
          <internalNodes>
            0 -1 160 1861951247 788518895 -265326672 -288425105 -3408025
            -84152475 -34081936 -956304387</internalNodes>
          <leafValues>
            -5.6164753437042236e-01 2.9981696605682373e-01</leafValues></_></weakClassifiers></_>
    <!-- stage 1 -->
    <_>
      <maxWeakCount>8</maxWeakCount>
      <stageThreshold>-1.7411677837371826e+00</stageThreshold>
      <weakClassifiers>
        <_>
          <internalNodes>
            0 -1 56 -65 -2121729 -1352824005 -1073766499 -5259329 -321
            536807947 -1073762641</internalNodes>
          <leafValues>
            -7.1799737215042114e-01 4.4596481323242188e-01</leafValues></_>
        <_>
          <internalNodes>
            0 -1 12 -228395070 -803149822 -397355043 -34604033 -43778093
            -2621642 -553656577 -1</internalNodes>
          <leafValues>
            -6.2686902284622192e-01 4.2877176403999329e-01</leafValues></_>
        <_>
          <internalNodes>
            0 -1 139 -274561 -8986625 -1885552645 -19464846 -35971756
            -1075316097 -25624592 -654524076</internalNodes>
          <leafValues>
            -4.9114289879798889e-01 4.0663942694664001e-01</leafValues></_>
        <_>
          <internalNodes>
            0 -1 28 -285225009 37190127 -1396901174 -1604124756
            -134250675 1165641855 -747112713 -671092769</internalNodes>
          <leafValues>
            -5.2188003063201904e-01 3.8560622930526733e-01</leafValues></_>
        <_>
          <internalNodes>
            0 -1 93 -1059654656 -54201615 1704852561 -570557857
            -190646361 -1091509569 -286270097 -536882453</internalNodes>
          <leafValues>
            -5.3830534219741821e-01 3.7053385376930237e-01</leafValues></_>
        <_>
          <internalNodes>
            0 -1 95 -12577 -822194337 -100729089 1920106456 -3207849
            -75801737 -826343533 -25887014</internalNodes>
          <leafValues>
            -4.6904063224792480e-01 3.7566104531288147e-01</leafValues></_>
        <_>
          <internalNodes>
            0 -1 166 -2113 -902823943 -268439556 -226492418 1877997399
            -286785571 -437262524 -192942090</internalNodes>
          <leafValues>
            -3.9268070459365845e-01 4.2158010601997375e-01</leafValues></_>
        <_>
          <internalNodes>
            0 -1 5 -606738055 1876619254 -67301837 587755201 -34865155
            -574623057 1874266476 1601826427</internalNodes>
          <leafValues>
            -4.6048799157142639e-01 3.5778567194938660e-01</leafValues></_></weakClassifiers></_>
    <!-- stage 2 -->
    <_>
      <maxWeakCount>10</maxWeakCount>
      <stageThreshold>-2.0260050296783447e+00</stageThreshold>
      <weakClassifiers>
        <_>
          <internalNodes>
            0 -1 55 -17409 -2118817 -1713561029 -1140874949 -2115137
            -262209 -1075860801 -17413</internalNodes>
          <leafValues>
            -6.7818742990493774e-01 4.6532157063484192e-01</leafValues></_>
        <_>
          <internalNodes>
            0 -1 11 -352325905 -354111825 -1946212705 -806671649
            -310415393 -536870913 -805310465 -4097</internalNodes>
          <leafValues>
            -4.6373140811920166e-01 5.1235878467559814e-01</leafValues></_>
        <_>
          <internalNodes>
            0 -1 97 -537011265 -547378177 530951995 -1140874593
            1962360607 -9569 637471241 234864575</internalNodes>
          <leafValues>
            -4.9231395125389099e-01 4.0460222959518433e-01</leafValues></_>
        <_>
          <internalNodes>
            0 -1 19 -641 1467965271 707192359 570478279 -61048831
            -4372907 -14618677 -601758129</internalNodes>
          <leafValues>
            -3.9227986335754395e-01 4.3022856116294861e-01</leafValues></_>
        <_>
          <internalNodes>
            0 -1 58 -260707856 1364252449 -1069506415 -774510403
            -1317994562 -1084888075 -1559840337 -551035505</internalNodes>
          <leafValues>
            -4.4172433018684387e-01 3.8077059388160706e-01</leafValues></_>
        <_>
          <internalNodes>
            0 -1 159 -1217 1719655413 -424345602 -155191849 -105944828
            2121632603 -89129904 -195037186</internalNodes>
          <leafValues>
            -4.7974136471748352e-01 3.4551188349723816e-01</leafValues></_>
        <_>
          <internalNodes>
            0 -1 120 -1965088929 -540033027 -1275068417 -621117986
            -1616397836 -67877448 -87088 -19333516</internalNodes>
          <leafValues>
            -4.1038063168525696e-01 3.8794320821762085e-01</leafValues></_>
        <_>
          <internalNodes>
            0 -1 156 -1077938317 682059756 1857794801 -571883980
            -1615604745 -1904640016 1434040213 -573059887</internalNodes>
          <leafValues>
            -3.4190481901168823e-01 4.4997686147689819e-01</leafValues></_>
        <_>
          <internalNodes>
            0 -1 52 -279447649 237174418 1474294777 -24579340
            -1082016835 -279713353 -5343243 -1160455264</internalNodes>
          <leafValues>
            -4.1702932119369507e-01 3.5443687438964844e-01</leafValues></_>
        <_>
          <internalNodes>
            0 -1 168 -1077936577 -489692890 -48783745 1888992475
            -136381658 1560210032 -3998095 -362367032</internalNodes>
          <leafValues>
            -3.9958915114402771e-01 3.6978277564048767e-01</leafValues></_></weakClassifiers></_>
    <!-- stage 3 -->
    <_>
      <maxWeakCount>10</maxWeakCount>
      <stageThreshold>-2.1204195022583008e+00</stageThreshold>
      <weakClassifiers>
        <_>
          <internalNodes>
            0 -1 48 593437499 -6324257 60629115 -148925959 -877740097
            -537142550 -302122817 -1048577</internalNodes>
          <leafValues>
            -7.1112793684005737e-01 2.2367516160011292e-01</leafValues></_>
        <_>
          <internalNodes>
            0 -1 140 -67108865 -269313 -715130881 -2106497 -1140852476
            -35680261 -105121596 -50332737</internalNodes>
          <leafValues>
            -4.7424113750457764e-01 4.3498122692108154e-01</leafValues></_>
        <_>
          <internalNodes>
            0 -1 10 -269488145 49204973 -302043220 -269570558 -941621281
            265215983 1476257711 -269488145</internalNodes>
          <leafValues>
            -3.9108338952064514e-01 4.7987729310989380e-01</leafValues></_>
        <_>
          <internalNodes>
            0 -1 127 -599460160 -1069252612 -193441295 -1042426901
            -1066080886 -660572169 -413675009 -2124865</internalNodes>
          <leafValues>
            -5.2729856967926025e-01 3.2286694645881653e-01</leafValues></_>
        <_>
          <internalNodes>
            0 -1 132 -486543117 -861181045 -772325359 -795740187
            -142606413 1146355581 282530065 -243796037</internalNodes>
          <leafValues>
            -3.7410184741020203e-01 4.2487812042236328e-01</leafValues></_>
        <_>
          <internalNodes>
            0 -1 24 -19797315 932515439 -652538089 117901064 -361377793
            -1099190373 -5292051 1807740350</internalNodes>
          <leafValues>
            -4.1256755590438843e-01 3.6575269699096680e-01</leafValues></_>
        <_>
          <internalNodes>
            0 -1 31 -15105 -46141881 -358407949 36085299 -869310650
            -1756561653 -788540461 -195561609</internalNodes>
          <leafValues>
            -3.9532944560050964e-01 3.8945108652114868e-01</leafValues></_>
        <_>
          <internalNodes>
            0 -1 90 -1393842317 -1367981678 -346178125 985409360
            -1146208905 -1612833953 -19660844 -1200597132</internalNodes>
          <leafValues>
            -5.0286245346069336e-01 2.8794839978218079e-01</leafValues></_>
        <_>
          <internalNodes>
            0 -1 108 -318768545 -358687305 -590389249 2063496158
            -358917290 -17974489 -108022284 -52379792</internalNodes>
          <leafValues>
            -4.5105984807014465e-01 3.2171148061752319e-01</leafValues></_>
        <_>
          <internalNodes>
            0 -1 72 -724175628 1360331845 1613794865 297120645
            1076934070 996925593 175006719 64299455</internalNodes>
          <leafValues>
            -4.5652690529823303e-01 3.2770213484764099e-01</leafValues></_></weakClassifiers></_>
    <!-- stage 4 -->
    <_>
      <maxWeakCount>11</maxWeakCount>
      <stageThreshold>-1.7973061800003052e+00</stageThreshold>
      <weakClassifiers>
        <_>
          <internalNodes>
            0 -1 14 -352325889 -2101505 -271060993 -2117921 -33793
            -67240997 -4195329 -4097</internalNodes>
          <leafValues>
            -6.4530491828918457e-01 3.3087784051895142e-01</leafValues></_>
        <_>
          <internalNodes>
            0 -1 17 -2097281 1987309335 -221842725 270597762 -112730315
            -579481771 -79178657 -96208257</internalNodes>
          <leafValues>
            -4.7055244445800781e-01 3.8413816690444946e-01</leafValues></_>
        <_>
          <internalNodes>
            0 -1 82 -704796513 2113777339 1937080507 858497723 801180575
            2144127195 1190068394 1073676954</internalNodes>
          <leafValues>
            -5.8572649955749512e-01 3.0193018913269043e-01</leafValues></_>
        <_>
          <internalNodes>
            0 -1 164 -134221021 -206571585 922482224 -1291849793
            2004300577 1568112495 -1539320021 -8388929</internalNodes>
          <leafValues>
            -3.8806474208831787e-01 4.4796130061149597e-01</leafValues></_>
        <_>
          <internalNodes>
            0 -1 2 -139466833 1248782058 1293143030 -289133942
            -1644972113 1306900639 335270391 -2313</internalNodes>
          <leafValues>
            -4.0190374851226807e-01 4.0848961472511292e-01</leafValues></_>
        <_>
          <internalNodes>
            0 -1 113 -620801153 -10543233 -129 -65537 -129 -8667171
            -8718340 -9899044</internalNodes>
          <leafValues>
            -3.5679474472999573e-01 4.6284896135330200e-01</leafValues></_>
        <_>
          <internalNodes>
            0 -1 129 -8392905 -292555781 -141303811 -621126894
            -503327724 -11718337 -1662510380 -291189292</internalNodes>
          <leafValues>
            -4.3975642323493958e-01 3.7399172782897949e-01</leafValues></_>
        <_>
          <internalNodes>
            0 -1 99 -734725382 -717112780 11010109 1937711215 1615102909
            -554839425 585704123 -554821</internalNodes>
          <leafValues>
            -3.9601439237594604e-01 3.7697991728782654e-01</leafValues></_>
        <_>
          <internalNodes>
            0 -1 60 1515192258 1212463887 -1651785007 1106247209
            1798619714 239565387 1734307598 1330598479</internalNodes>
          <leafValues>
            -5.0056648254394531e-01 2.8795531392097473e-01</leafValues></_>
        <_>
          <internalNodes>
            0 -1 162 -135233 -1416695825 -134219919 1068496864 536338294
            -931135497 -168823564 -774375949</internalNodes>
          <leafValues>
            -3.4377637505531311e-01 4.2449566721916199e-01</leafValues></_>
        <_>
          <internalNodes>
            0 -1 76 42674103 -287376514 -812263943 -628167952 1069166435
            -1363944706 -589398059 -57099052</internalNodes>
          <leafValues>
            -4.5988598465919495e-01 3.0913370847702026e-01</leafValues></_></weakClassifiers></_>
    <!-- stage 5 -->
    <_>
      <maxWeakCount>11</maxWeakCount>
      <stageThreshold>-1.7729676961898804e+00</stageThreshold>
      <weakClassifiers>
        <_>
          <internalNodes>
            0 -1 9 -2752513 -34227203 -1344689985 791620111 -69484545
            -2228485 -413701 -49153</internalNodes>
          <leafValues>
            -6.7002010345458984e-01 1.7828708887100220e-01</leafValues></_>
        <_>
          <internalNodes>
            0 -1 0 -487591953 720300778 -443028041 -1928926486
            -887360513 1270602427 -1018429441 -805306377</internalNodes>
          <leafValues>
            -4.8816692829132080e-01 3.6115214228630066e-01</leafValues></_>
        <_>
          <internalNodes>
            0 -1 138 -1074790409 -1347486316 -167782413 -68484
            -1345604173 -827344902 1470878192 -838929164</internalNodes>
          <leafValues>
            -4.1032549738883972e-01 3.9868977665901184e-01</leafValues></_>
        <_>
          <internalNodes>
            0 -1 154 -1359218437 -395642425 771393617 -842539265
            -1879181637 -1459618757 1423261760 -706742829</internalNodes>
          <leafValues>
            -3.7053793668746948e-01 4.1733810305595398e-01</leafValues></_>
        <_>
          <internalNodes>
            0 -1 86 -285259009 1541890782 -822151297 2063007711
            -631419044 -25403530 -17893122 -93126754</internalNodes>
          <leafValues>
            -3.0624392628669739e-01 4.8125997185707092e-01</leafValues></_>
        <_>
          <internalNodes>
            0 -1 45 -549072432 1426170272 -1027547535 1361132203
            1428029371 -25642079 1100480127 -1678784081</internalNodes>
          <leafValues>
            -4.4406089186668396e-01 3.3642587065696716e-01</leafValues></_>
        <_>
          <internalNodes>
            0 -1 151 -6343171 -3129859 -546513057 2078241791 -16896804
            -1143297042 -346546691 -1372054092</internalNodes>
          <leafValues>
            -4.2568224668502808e-01 3.3623841404914856e-01</leafValues></_>
        <_>
          <internalNodes>
            0 -1 35 -83890097 1123805918 -690528611 821995254 -98829506
            -294776678 1785723847 -151520802</internalNodes>
          <leafValues>
            -3.6401021480560303e-01 3.9506739377975464e-01</leafValues></_>
        <_>
          <internalNodes>
            0 -1 96 -715796742 -766456016 707830883 872128095 1081115822
            -640949826 2121238943 -1099042257</internalNodes>
          <leafValues>
            -3.6008933186531067e-01 3.6078450083732605e-01</leafValues></_>
        <_>
          <internalNodes>
            0 -1 38 -427859969 -355010100 -144967949 -1997340770
            2016099029 -542119139 -95718155 -119344336</internalNodes>
          <leafValues>
            -4.1108942031860352e-01 3.2691168785095215e-01</leafValues></_>
        <_>
          <internalNodes>
            0 -1 119 207887376 -1082892815 -2082471945 938684720
            1049784312 -6358181 1035485181 800982392</internalNodes>
          <leafValues>
            -6.1147564649581909e-01 2.0943138003349304e-01</leafValues></_></weakClassifiers></_>
    <!-- stage 6 -->
    <_>
      <maxWeakCount>11</maxWeakCount>
      <stageThreshold>-1.6920751333236694e+00</stageThreshold>
      <weakClassifiers>
        <_>
          <internalNodes>
            0 -1 20 -2097157 -77627617 -1442646477 188255 -11020681
            -7107305 -369033601 -29098017</internalNodes>
          <leafValues>
            -6.8879902362823486e-01 1.1585235595703125e-01</leafValues></_>
        <_>
          <internalNodes>
            0 -1 89 -285212673 -286720514 -38535201 -24342308 -119538689
            -8396293 -2495489 -84344844</internalNodes>
          <leafValues>
            -4.8272174596786499e-01 3.7035056948661804e-01</leafValues></_>
        <_>
          <internalNodes>
            0 -1 167 -527853 1399248875 -928005516 -1020068613 89593649
            1985476438 -504015599 -1</internalNodes>
          <leafValues>
            -3.9420121908187866e-01 4.3055343627929688e-01</leafValues></_>
        <_>
          <internalNodes>
            0 -1 27 -956307797 16682981 -1562974190 1611591678
            -824195762 1174166150 1828707063 -138936393</internalNodes>
          <leafValues>
            -4.3415206670761108e-01 3.5149842500686646e-01</leafValues></_>
        <_>
          <internalNodes>
            0 -1 142 -281019725 783142652 2146236279 -33849477
            -1359233089 -806486313 1476360181 -840960524</internalNodes>
          <leafValues>
            -3.2733279466629028e-01 4.5507019758224487e-01</leafValues></_>
        <_>
          <internalNodes>
            0 -1 54 -2782277 1029352444 -1223319367 453749689 2068286367
            -1078068243 2011103883 1006611099</internalNodes>
          <leafValues>
            -5.0804638862609863e-01 2.8285375237464905e-01</leafValues></_>
        <_>
          <internalNodes>
            0 -1 122 -1090543629 -84450350 -274736673 -545597224
            -76814401 -32147328 -1622540843 -1433084864</internalNodes>
          <leafValues>
            -3.5781180858612061e-01 3.8108634948730469e-01</leafValues></_>
        <_>
          <internalNodes>
            0 -1 68 -211291137 -53956866 -672343535 -888406513
            -933372327 -1930826161 -822099445 1326435403</internalNodes>
          <leafValues>
            -3.2077980041503906e-01 4.2554989457130432e-01</leafValues></_>
        <_>
          <internalNodes>
            0 -1 39 -822612045 -822186066 -349700101 -421069850
            -1417715849 -542134793 1941958996 -218628236</internalNodes>
          <leafValues>
            -5.2042245864868164e-01 2.5431102514266968e-01</leafValues></_>
        <_>
          <internalNodes>
            0 -1 30 -8581 -209754433 -83891978 -260571437 -270549716
            -8394628 -167915794 -210501761</internalNodes>
          <leafValues>
            -2.6135829091072083e-01 4.8361095786094666e-01</leafValues></_>
        <_>
          <internalNodes>
            0 -1 87 2053063199 -554476546 1854686207 1912627546
            -70620624 -65324929 -673933356 -97321104</internalNodes>
          <leafValues>
            -4.3041977286338806e-01 3.0008423328399658e-01</leafValues></_></weakClassifiers></_>
    <!-- stage 7 -->
    <_>
      <maxWeakCount>12</maxWeakCount>
      <stageThreshold>-1.5431650876998901e+00</stageThreshold>
      <weakClassifiers>
        <_>
          <internalNodes>
            0 -1 71 -10485761 -2097665 1145362261 -572654593 -77595665
            -1076903250 -79167493 -2049</internalNodes>
          <leafValues>
            -5.5898135900497437e-01 5.2788305282592773e-01</leafValues></_>
        <_>
          <internalNodes>
            0 -1 85 -17414401 -8516931 -1152188421 1069156979 -588068359
            -67408925 -21169665 774011835</internalNodes>
          <leafValues>
            -4.9823781847953796e-01 2.9644832015037537e-01</leafValues></_>
        <_>
          <internalNodes>
            0 -1 163 -2634997 2103433855 -1831102529 -220463649
            2116756480 2124378679 -2036415988 -143654913</internalNodes>
          <leafValues>
            -3.8819625973701477e-01 3.8371410965919495e-01</leafValues></_>
        <_>
          <internalNodes>
            0 -1 66 24322827 859257911 47259699 -1308667069 1456959487
            771480509 -1350181426 -340271107</internalNodes>
          <leafValues>
            -4.6644842624664307e-01 3.2033377885818481e-01</leafValues></_>
        <_>
          <internalNodes>
            0 -1 133 803733499 250542847 -1007681545 -537231427
            -1073758721 -1948598594 385873376 -856107788</internalNodes>
          <leafValues>
            -3.6664596199989319e-01 3.8152521848678589e-01</leafValues></_>
        <_>
          <internalNodes>
            0 -1 26 -423630297 585797231 1481887050 -119542063
            -402823233 67331063 -874028297 -1050925</internalNodes>
          <leafValues>
            -3.6904472112655640e-01 3.6327686905860901e-01</leafValues></_>
        <_>
          <internalNodes>
            0 -1 135 -923808560 1154258102 -300616995 -581569315
            -1734433600 -1640864297 -551562753 -301998097</internalNodes>
          <leafValues>
            -4.8058500885963440e-01 2.9643067717552185e-01</leafValues></_>
        <_>
          <internalNodes>
            0 -1 114 -287645699 -6393987 -1274965665 1608482783
            -1360013313 -1077095937 -6030867 -1474673660</internalNodes>
          <leafValues>
            -4.4402498006820679e-01 2.7384650707244873e-01</leafValues></_>
        <_>
          <internalNodes>
            0 -1 37 787439187 -1427317846 -694165787 719233496 -23114147
            -897352776 2093954045 -622006988</internalNodes>
          <leafValues>
            -5.1179760694503784e-01 2.4848178029060364e-01</leafValues></_>
        <_>
          <internalNodes>
            0 -1 134 -2097477 -930221958 401429713 -544222237 -918951014
            168798873 94586133 -975576245</internalNodes>
          <leafValues>
            -3.5500809550285339e-01 3.4779095649719238e-01</leafValues></_>
        <_>
          <internalNodes>
            0 -1 34 1429326339 833699078 628113439 833435146 1540977663
            966424745 -91067718 952069580</internalNodes>
          <leafValues>
            -3.9591562747955322e-01 3.0767148733139038e-01</leafValues></_>
        <_>
          <internalNodes>
            0 -1 50 -536876301 -1075881645 -1127037346 -220792901
            1053520129 -277362839 1917714164 -76034961</internalNodes>
          <leafValues>
            -3.5517063736915588e-01 3.3640846610069275e-01</leafValues></_></weakClassifiers></_>
    <!-- stage 8 -->
    <_>
      <maxWeakCount>13</maxWeakCount>
      <stageThreshold>-1.7142031192779541e+00</stageThreshold>
      <weakClassifiers>
        <_>
          <internalNodes>
            0 -1 81 -607125537 -713034785 -1790658164 -571634802
            -72171537 -1078068257 -49959986 -3145749</internalNodes>
          <leafValues>
            -6.3825875520706177e-01 1.7306680977344513e-01</leafValues></_>
        <_>
          <internalNodes>
            0 -1 4 -277877249 1827301610 1373179383 -271703390
            -1443889665 -807420417 -205520897 -2099201</internalNodes>
          <leafValues>
            -4.3361407518386841e-01 3.4209612011909485e-01</leafValues></_>
        <_>
          <internalNodes>
            0 -1 103 -599196964 -597647280 1843944829 -541202231
            -1668942896 -89366803 -814941061 -553660673</internalNodes>
          <leafValues>
            -3.5958892107009888e-01 4.0278190374374390e-01</leafValues></_>
        <_>
          <internalNodes>
            0 -1 155 -1099958341 -14426080 2067750837 -1246245568
            -1933586693 -1617691204 234837501 -907027324</internalNodes>
          <leafValues>
            -3.2425057888031006e-01 4.2300724983215332e-01</leafValues></_>
        <_>
          <internalNodes>
            0 -1 153 -70278397 -1140867747 -2024831857 -1498030625
            796860193 791732747 706555660 660596543</internalNodes>
          <leafValues>
            -5.7954615354537964e-01 2.2713617980480194e-01</leafValues></_>
        <_>
          <internalNodes>
            0 -1 112 -819329 -4640814 1072987647 -680591361 -672769
            -16793603 -1633878020 -23562796</internalNodes>
          <leafValues>
            -2.9704213142395020e-01 4.4060233235359192e-01</leafValues></_>
        <_>
          <internalNodes>
            0 -1 18 -75510949 1345939443 -2107691504 811850998
            1837063964 -665125545 -204742898 -663486593</internalNodes>
          <leafValues>
            -3.5554051399230957e-01 3.6749061942100525e-01</leafValues></_>
        <_>
          <internalNodes>
            0 -1 106 -1073676640 1373146453 -383442889 -245423299
            79695243 -862338616 638001851 -10023233</internalNodes>
          <leafValues>
            -4.8888573050498962e-01 2.5161546468734741e-01</leafValues></_>
        <_>
          <internalNodes>
            0 -1 169 -286261317 -1364269274 766506545 -18088193
            -75499935 -1906346306 -244320425 -152048970</internalNodes>
          <leafValues>
            -3.3754712343215942e-01 3.7538182735443115e-01</leafValues></_>
        <_>
          <internalNodes>
            0 -1 150 731905715 -2005422374 -1610776585 1507818998
            -1493182529 -1883242636 1602212853 -538970908</internalNodes>
          <leafValues>
            -3.1539228558540344e-01 3.8322758674621582e-01</leafValues></_>
        <_>
          <internalNodes>
            0 -1 40 2144325250 823199785 570828851 905260475 2111646431
            1976814778 -110173320 1069547198</internalNodes>
          <leafValues>
            -4.4456228613853455e-01 2.7183806896209717e-01</leafValues></_>
        <_>
          <internalNodes>
            0 -1 33 -486580393 1322373657 -1055141057 677548493
            -68195826 -295978454 -914448443 -93134064</internalNodes>
          <leafValues>
            -4.4693249464035034e-01 2.8724274039268494e-01</leafValues></_>
        <_>
          <internalNodes>
            0 -1 98 -1562412001 -68192257 -698362881 316305375 -45127328
            -38272392 -1638668289 -88413196</internalNodes>
          <leafValues>
            -3.7195095419883728e-01 3.3447846770286560e-01</leafValues></_></weakClassifiers></_>
    <!-- stage 9 -->
    <_>
      <maxWeakCount>13</maxWeakCount>
      <stageThreshold>-1.9834780693054199e+00</stageThreshold>
      <weakClassifiers>
        <_>
          <internalNodes>
            0 -1 61 -83891457 -603991297 -1872561409 -71567617
            -1057044242 -857748785 -85045057 -270337</internalNodes>
          <leafValues>
            -5.9394103288650513e-01 3.5032331943511963e-01</leafValues></_>
        <_>
          <internalNodes>
            0 -1 117 -3153989 -538998802 -1920653249 2111283387
            2125422479 1040178607 1070531115 2147471359</internalNodes>
          <leafValues>
            -4.7818651795387268e-01 2.8543686866760254e-01</leafValues></_>
        <_>
          <internalNodes>
            0 -1 1 38792751 44468974 1567755155 1673997322 637522831
            -846310773 530043897 -536875029</internalNodes>
          <leafValues>
            -4.4107350707054138e-01 3.1955161690711975e-01</leafValues></_>
        <_>
          <internalNodes>
            0 -1 149 -1078986765 -1885414166 133689329 -672531082
            -1221860629 -1422983282 396227989 -842021388</internalNodes>
          <leafValues>
            -3.3600586652755737e-01 3.8948044180870056e-01</leafValues></_>
        <_>
          <internalNodes>
            0 -1 8 -263127342 -255835446 -2013212199 -527375991
            -230319274 -538320511 -883033330 -33555553</internalNodes>
          <leafValues>
            -5.0520706176757812e-01 3.0036568641662598e-01</leafValues></_>
        <_>
          <internalNodes>
            0 -1 143 -580918409 -71461906 1536528637 -11218468 -30467840
            -75523417 -22946064 -932389900</internalNodes>
          <leafValues>
            -4.4875329732894897e-01 2.7328047156333923e-01</leafValues></_>
        <_>
          <internalNodes>
            0 -1 157 -805318689 -1367081061 -705440336 -487928865
            -708221489 248446187 2011690487 1440739815</internalNodes>
          <leafValues>
            -3.9784988760948181e-01 3.3346620202064514e-01</leafValues></_>
        <_>
          <internalNodes>
            0 -1 92 -287347009 -151053459 1791019515 1376966550
            1071345414 -79098241 -1092687364 -27066510</internalNodes>
          <leafValues>
            -4.0598788857460022e-01 3.2751473784446716e-01</leafValues></_>
        <_>
          <internalNodes>
            0 -1 36 -13563137 -1156698492 1728282487 1033702175
            2096438242 -74954519 2142142335 2143909653</internalNodes>
          <leafValues>
            -4.1329663991928101e-01 3.0281007289886475e-01</leafValues></_>
        <_>
          <internalNodes>
            0 -1 21 -2418661 931071062 -1040164319 45603 1862726400
            -378771130 -1640171987 1348715087</internalNodes>
          <leafValues>
            -5.0978809595108032e-01 2.5243958830833435e-01</leafValues></_>
        <_>
          <internalNodes>
            0 -1 173 -3147221 -967367773 1029935024 -223349345
            1686106658 302355782 -708885420 -807403557</internalNodes>
          <leafValues>
            -3.8055384159088135e-01 3.2919019460678101e-01</leafValues></_>
        <_>
          <internalNodes>
            0 -1 70 -704774658 1900150597 -533402032 836773765
            -1587226208 1502331599 394759723 1001599415</internalNodes>
          <leafValues>
            -3.8556441664695740e-01 3.3323758840560913e-01</leafValues></_>
        <_>
          <internalNodes>
            0 -1 79 1457486400 -937377216 511790209 1336116847
            1272700224 -603526526 -1008785905 -936652965</internalNodes>
          <leafValues>
            -4.1363307833671570e-01 3.0134078860282898e-01</leafValues></_></weakClassifiers></_>
    <!-- stage 10 -->
    <_>
      <maxWeakCount>12</maxWeakCount>
      <stageThreshold>-1.9844719171524048e+00</stageThreshold>
      <weakClassifiers>
        <_>
          <internalNodes>
            0 -1 102 -2097185 -8014403 -1038103493 -1425277011 -37750789
            -5243741 -1428161621 -1089732853</internalNodes>
          <leafValues>
            -6.1566311120986938e-01 2.8266495466232300e-01</leafValues></_>
        <_>
          <internalNodes>
            0 -1 126 -2686979 -8985633 -522726401 -281601 -1090659329
            -1068873 -337646081 -1359064044</internalNodes>
          <leafValues>
            -4.4476246833801270e-01 3.2875061035156250e-01</leafValues></_>
        <_>
          <internalNodes>
            0 -1 44 -155737217 2140635655 -2144142789 536922975
            -362983910 -566818755 -603791489 -12326029</internalNodes>
          <leafValues>
            -3.8177528977394104e-01 3.6460623145103455e-01</leafValues></_>
        <_>
          <internalNodes>
            0 -1 161 -129 -504365185 1879043965 -18681858 1844436853
            -1084235793 1710216144 -285278273</internalNodes>
          <leafValues>
            -3.4210485219955444e-01 3.9598581194877625e-01</leafValues></_>
        <_>
          <internalNodes>
            0 -1 100 -797646874 1425850681 -532397739 -152076117
            1443161786 2089458618 -1604027413 -9702481</internalNodes>
          <leafValues>
            -4.0045586228370667e-01 3.5196840763092041e-01</leafValues></_>
        <_>
          <internalNodes>
            0 -1 25 -276305237 246145998 1845408401 -876681526
            -404232225 1120858871 -1613274413 -603984417</internalNodes>
          <leafValues>
            -3.6378839612007141e-01 3.6196506023406982e-01</leafValues></_>
        <_>
          <internalNodes>
            0 -1 109 331290619 -563190921 -1953003041 -67209325
            928800083 -20189528 -740951044 -1087867528</internalNodes>
          <leafValues>
            -3.7509679794311523e-01 3.4897196292877197e-01</leafValues></_>
        <_>
          <internalNodes>
            0 -1 75 1604282147 857210643 1691965603 2012340145
            2060001279 364603646 1805879243 -336073941</internalNodes>
          <leafValues>
            -3.9180797338485718e-01 3.4023189544677734e-01</leafValues></_>
        <_>
          <internalNodes>
            0 -1 145 -319049813 141346502 -1969765327 1911805843
            672861099 231375787 1086669073 1279654103</internalNodes>
          <leafValues>
            -4.7382518649101257e-01 2.6041400432586670e-01</leafValues></_>
        <_>
          <internalNodes>
            0 -1 107 -160698385 939261950 -1476398578 -570949685
            1115620047 2029486046 -957013332 -306842025</internalNodes>
          <leafValues>
            -3.3414036035537720e-01 3.8852429389953613e-01</leafValues></_>
        <_>
          <internalNodes>
            0 -1 41 242371155 -1963830546 -886867969 -287677705
            -420812427 -91085893 1823153563 -354488204</internalNodes>
          <leafValues>
            -5.0884830951690674e-01 2.4907471239566803e-01</leafValues></_>
        <_>
          <internalNodes>
            0 -1 121 1798831935 263192575 -98473 -84738058 217948151
            -1359036564 -989948428 -327158564</internalNodes>
          <leafValues>
            -3.4363207221031189e-01 3.6812648177146912e-01</leafValues></_></weakClassifiers></_>
    <!-- stage 11 -->
    <_>
      <maxWeakCount>14</maxWeakCount>
      <stageThreshold>-1.7890816926956177e+00</stageThreshold>
      <weakClassifiers>
        <_>
          <internalNodes>
            0 -1 84 -1 -705315423 -1004877610 1440052933 -622352709
            -292149 -73413925 -538706357</internalNodes>
          <leafValues>
            -5.7835358381271362e-01 4.3443354964256287e-01</leafValues></_>
        <_>
          <internalNodes>
            0 -1 47 598680343 -8532673 24740159 1473798330 -268898561
            -1937729016 -1375608120 -538258833</internalNodes>
          <leafValues>
            -4.4907447695732117e-01 3.0927771329879761e-01</leafValues></_>
        <_>
          <internalNodes>
            0 -1 42 -10533 -111155617 -1356169481 19554007 1209060480
            -17049377 1175502986 -301806501</internalNodes>
          <leafValues>
            -3.5651186108589172e-01 3.9251372218132019e-01</leafValues></_>
        <_>
          <internalNodes>
            0 -1 146 -1568424077 -1423648636 -99092619 1406458005
            -1412713806 -1460803562 169050549 -807415568</internalNodes>
          <leafValues>
            -3.7438589334487915e-01 3.6069974303245544e-01</leafValues></_>
        <_>
          <internalNodes>
            0 -1 78 -618404938 -13578857 1329244697 -1377106390 3185328
            -373141786 1264586363 192093991</internalNodes>
          <leafValues>
            -3.3273801207542419e-01 4.0600809454917908e-01</leafValues></_>
        <_>
          <internalNodes>
            0 -1 172 -218107101 -180166871 1220670977 1925700059
            2135106355 1862486383 -162805990 -11534389</internalNodes>
          <leafValues>
            -3.7112629413604736e-01 3.6546218395233154e-01</leafValues></_>
        <_>
          <internalNodes>
            0 -1 63 -2026476681 -1608461934 -1721840841 -1361834864
            -24396803 -589606761 -303038759 -2002221084</internalNodes>
          <leafValues>
            -4.7004544734954834e-01 2.8702208399772644e-01</leafValues></_>
        <_>
          <internalNodes>
            0 -1 51 2063270435 1061105653 652997289 1667495803
            -287619776 -413202864 -213928197 -9175477</internalNodes>
          <leafValues>
            -3.0911302566528320e-01 4.3853265047073364e-01</leafValues></_>
        <_>
          <internalNodes>
            0 -1 91 1474273935 831126803 834961442 -1157249359
            1141395369 797510270 1221836872 1979181626</internalNodes>
          <leafValues>
            -4.6082207560539246e-01 2.9640233516693115e-01</leafValues></_>
        <_>
          <internalNodes>
            0 -1 16 -25199777 -128202920 -754699574 813941248 2067513610
            -1204433589 1110393738 -1066154173</internalNodes>
          <leafValues>
            -4.1015982627868652e-01 3.2470962405204773e-01</leafValues></_>
        <_>
          <internalNodes>
            0 -1 67 -677445894 -95287308 336594457 290292875 -2054140768
            -1268505408 -1694360977 486869871</internalNodes>
          <leafValues>
            -3.8460454344749451e-01 3.5556158423423767e-01</leafValues></_>
        <_>
          <internalNodes>
            0 -1 104 1189038331 -1009290657 1410585817 948068755
            1290759250 -928448232 -481757444 -100599232</internalNodes>
          <leafValues>
            -4.2156681418418884e-01 3.1699883937835693e-01</leafValues></_>
        <_>
          <internalNodes>
            0 -1 152 -1583883248 -1567715617 -1870073603 798608595
            464781587 -1147416574 717982491 514840219</internalNodes>
          <leafValues>
            -4.9837386608123779e-01 2.4137531220912933e-01</leafValues></_>
        <_>
          <internalNodes>
            0 -1 57 -67048239 -5716166 -1342504961 -109302319 -290721871
            -1073766667 1823838085 -1433370859</internalNodes>
          <leafValues>
            -3.2215470075607300e-01 3.9968666434288025e-01</leafValues></_></weakClassifiers></_>
    <!-- stage 12 -->
    <_>
      <maxWeakCount>14</maxWeakCount>
      <stageThreshold>-1.6974514722824097e+00</stageThreshold>
      <weakClassifiers>
        <_>
          <internalNodes>
            0 -1 111 -1 -2120737 -256522211 -35655081 -789250561
            -30678485 1894239231 -16789829</internalNodes>
          <leafValues>
            -5.5609041452407837e-01 4.5063939690589905e-01</leafValues></_>
        <_>
          <internalNodes>
            0 -1 165 -1023410189 -880614742 -2076096551 -3189109
            63221984 -1363107805 1075171748 -811081001</internalNodes>
          <leafValues>
            -4.0855121612548828e-01 3.4659805893898010e-01</leafValues></_>
        <_>
          <internalNodes>
            0 -1 6 2140256249 464514549 -1761542085 782674552
            -1199002629 -23533408 2140843675 2143284938</internalNodes>
          <leafValues>
            -4.5775166153907776e-01 3.0427122116088867e-01</leafValues></_>
        <_>
          <internalNodes>
            0 -1 123 883035444 -2475048 433979381 -1077976103
            -1093092417 -1141036888 -1685340680 -1148707672</internalNodes>
          <leafValues>
            -4.0222039818763733e-01 3.2663917541503906e-01</leafValues></_>
        <_>
          <internalNodes>
            0 -1 15 -354947457 273777480 -1609501641 268497690 828834585
            -1945509884 -14423042 -129500301</internalNodes>
          <leafValues>
            -3.6833599209785461e-01 3.6504456400871277e-01</leafValues></_>
        <_>
          <internalNodes>
            0 -1 80 -438353153 -6456707 -559940645 1381157551 -349304308
            -654685643 -865834504 -93130210</internalNodes>
          <leafValues>
            -3.7683045864105225e-01 3.3504769206047058e-01</leafValues></_>
        <_>
          <internalNodes>
            0 -1 158 -102809761 1860561542 2101376767 -1260453921
            -10506448 -123752033 799502672 -123021804</internalNodes>
          <leafValues>
            -4.0490210056304932e-01 3.2538902759552002e-01</leafValues></_>
        <_>
          <internalNodes>
            0 -1 74 1399972610 290526995 1738584323 835975571 815074804
            582689691 -232687260 -2015420273</internalNodes>
          <leafValues>
            -4.5443138480186462e-01 2.6514559984207153e-01</leafValues></_>
        <_>
          <internalNodes>
            0 -1 125 211743735 -1879245857 1569575389 -545328644
            412082145 -62915698 -1963985667 259922960</internalNodes>
          <leafValues>
            -4.5219361782073975e-01 2.8104528784751892e-01</leafValues></_>
        <_>
          <internalNodes>
            0 -1 101 -874516565 864533351 -938347351 -3058411 1166767548
            168431816 1448704985 -3015822</internalNodes>
          <leafValues>
            -3.6370676755905151e-01 3.4441456198692322e-01</leafValues></_>
        <_>
          <internalNodes>
            0 -1 3 1179117539 782394570 -134102272 -941178366 1798241271
            193722624 1888084471 -805354953</internalNodes>
          <leafValues>
            -4.6109938621520996e-01 2.8429552912712097e-01</leafValues></_>
        <_>
          <internalNodes>
            0 -1 144 -268442485 1678174720 1124253696 1164243347
            1174372283 -1892774597 1347215744 -572656237</internalNodes>
          <leafValues>
            -4.1410684585571289e-01 3.1932273507118225e-01</leafValues></_>
        <_>
          <internalNodes>
            0 -1 105 -8513540 -1209007649 -711421825 -6935617 -19434499
            -880088507 -2114131 -1441134556</internalNodes>
          <leafValues>
            -4.5908653736114502e-01 2.8336152434349060e-01</leafValues></_>
        <_>
          <internalNodes>
            0 -1 77 -2091951113 -1436911634 -1056287247 1218377684
            61813106 -11878129 1973842033 -663817868</internalNodes>
          <leafValues>
            -5.2238583564758301e-01 2.6278725266456604e-01</leafValues></_></weakClassifiers></_>
    <!-- stage 13 -->
    <_>
      <maxWeakCount>13</maxWeakCount>
      <stageThreshold>-1.6390869617462158e+00</stageThreshold>
      <weakClassifiers>
        <_>
          <internalNodes>
            0 -1 115 -8388865 -536878165 -251080635 -3415573 -134153473
            -365256201 -580848641 -1049089</internalNodes>
          <leafValues>
            -5.6823170185089111e-01 4.0446877479553223e-01</leafValues></_>
        <_>
          <internalNodes>
            0 -1 49 -800196901 -874535681 -1655864817 -914117909
            -1064018989 -818543900 -543469813 240075471</internalNodes>
          <leafValues>
            -4.2912161350250244e-01 3.2671225070953369e-01</leafValues></_>
        <_>
          <internalNodes>
            0 -1 147 -539525261 -546385442 1292194815 -551889923
            -107501216 -43060267 -607061000 -476200</internalNodes>
          <leafValues>
            -3.5490736365318298e-01 3.6739647388458252e-01</leafValues></_>
        <_>
          <internalNodes>
            0 -1 141 -1685062793 -1436355626 -733092353 -772014510
            -1436696642 -1197964106 426484949 -838937100</internalNodes>
          <leafValues>
            -3.5694795846939087e-01 3.6686193943023682e-01</leafValues></_>
        <_>
          <internalNodes>
            0 -1 13 -1024988465 15460071 -1413797709 -474796803
            1341838315 -370217089 -269499441 -34078757</internalNodes>
          <leafValues>
            -3.4828853607177734e-01 3.7371802330017090e-01</leafValues></_>
        <_>
          <internalNodes>
            0 -1 62 -226767089 -71356617 -150995201 1380089387
            -696819890 -10498298 -84153058 -210501801</internalNodes>
          <leafValues>
            -3.2556861639022827e-01 3.8222768902778625e-01</leafValues></_>
        <_>
          <internalNodes>
            0 -1 136 1039663035 -1126511905 621915429 -1479689827
            -657814353 -386290578 634585481 720893280</internalNodes>
          <leafValues>
            -3.6178040504455566e-01 3.5922130942344666e-01</leafValues></_>
        <_>
          <internalNodes>
            0 -1 148 -148112653 -90053328 -1075486831 -1088299100
            -1086410757 -1080574176 256114669 -842051348</internalNodes>
          <leafValues>
            -2.9306775331497192e-01 4.1454991698265076e-01</leafValues></_>
        <_>
          <internalNodes>
            0 -1 53 -648825262 474551560 -2145361903 1411208029
            1230743940 193560864 1476573519 -647644231</internalNodes>
          <leafValues>
            -3.9489704370498657e-01 3.1178978085517883e-01</leafValues></_>
        <_>
          <internalNodes>
            0 -1 116 -2106581644 394187678 -786869891 -1075127334
            -754137928 -1180204872 -584299539 -1074258276</internalNodes>
          <leafValues>
            -5.7170879840850830e-01 2.1439555287361145e-01</leafValues></_>
        <_>
          <internalNodes>
            0 -1 65 -615252561 487585159 -150897916 1025503605
            -810419237 -1316919148 -217470196 145091387</internalNodes>
          <leafValues>
            -3.4681954979896545e-01 3.6055007576942444e-01</leafValues></_>
        <_>
          <internalNodes>
            0 -1 59 789003059 -1533107554 -250539533 105706076
            -427350597 -624262013 425046516 -858986224</internalNodes>
          <leafValues>
            -5.2297824621200562e-01 2.4269434809684753e-01</leafValues></_>
        <_>
          <internalNodes>
            0 -1 130 -1570525613 378853460 -2013051937 584814702
            666783728 -1154342875 2089112497 -1090526875</internalNodes>
          <leafValues>
            -3.8384494185447693e-01 3.1594526767730713e-01</leafValues></_></weakClassifiers></_>
    <!-- stage 14 -->
    <_>
      <maxWeakCount>14</maxWeakCount>
      <stageThreshold>-1.9000328779220581e+00</stageThreshold>
      <weakClassifiers>
        <_>
          <internalNodes>
            0 -1 64 -525313 -46798447 1388615069 -168693545 -82051409
            -351297371 -90463013 -4719637</internalNodes>
          <leafValues>
            -5.6432217359542847e-01 4.6081814169883728e-01</leafValues></_>
        <_>
          <internalNodes>
            0 -1 131 247981743 294901703 -1039011683 -77902627
            1186529983 -16635512 1934982139 -5408913</internalNodes>
          <leafValues>
            -3.9243966341018677e-01 3.8120061159133911e-01</leafValues></_>
        <_>
          <internalNodes>
            0 -1 128 -950014253 -291779968 348213569 -712914828
            -225733709 -353701191 270090561 -578172001</internalNodes>
          <leafValues>
            -3.7413135170936584e-01 3.7583220005035400e-01</leafValues></_>
        <_>
          <internalNodes>
            0 -1 83 -803744513 1411203213 -1341648564 1280575688
            -261021282 -1199341301 1744936840 1095217034</internalNodes>
          <leafValues>
            -4.3789213895797729e-01 2.9800406098365784e-01</leafValues></_>
        <_>
          <internalNodes>
            0 -1 32 -834241161 -291769437 -1568323405 -223821538
            1485788027 -629460952 -9451308 -8915020</internalNodes>
          <leafValues>
            -3.8037440180778503e-01 3.8972437381744385e-01</leafValues></_>
        <_>
          <internalNodes>
            0 -1 43 -251661569 -685281541 -93959559 1560305257
            -1072282608 -855746064 -601832245 -616304569</internalNodes>
          <leafValues>
            -3.1599721312522888e-01 4.3407750129699707e-01</leafValues></_>
        <_>
          <internalNodes>
            0 -1 73 -766911408 424481796 12616385 1519957787 1744845062
            -1157257088 -1322782714 -654723317</internalNodes>
          <leafValues>
            -4.2433455586433411e-01 3.2367366552352905e-01</leafValues></_>
        <_>
          <internalNodes>
            0 -1 94 15908976 -1794833880 1359008207 -1187184323
            1913304057 -1616663876 2135112251 796612907</internalNodes>
          <leafValues>
            -3.6965677142143250e-01 3.6223474144935608e-01</leafValues></_>
        <_>
          <internalNodes>
            0 -1 171 1602183939 286773519 33652890 -185405294 1963026209
            170024960 592443434 -345116705</internalNodes>
          <leafValues>
            -3.7513726949691772e-01 3.5840347409248352e-01</leafValues></_>
        <_>
          <internalNodes>
            0 -1 88 1082641191 -179056226 1342243277 1381167238
            2030576694 1799946250 -434412802 -228527078</internalNodes>
          <leafValues>
            -4.1088646650314331e-01 3.3262005448341370e-01</leafValues></_>
        <_>
          <internalNodes>
            0 -1 110 -435415245 -52672233 291018839 -57224720 -129286329
            -625270655 -530207756 -292260956</internalNodes>
          <leafValues>
            -4.5239934325218201e-01 2.8361928462982178e-01</leafValues></_>
        <_>
          <internalNodes>
            0 -1 170 -319824385 -1973229838 2080347699 -671095041
            1333782175 -823660690 -143296793 -538183681</internalNodes>
          <leafValues>
            -2.3150333762168884e-01 5.4936683177947998e-01</leafValues></_>
        <_>
          <internalNodes>
            0 -1 22 -674135542 2030920727 -1845067117 572821535
            -1609498624 1361473602 -1260909746 809612111</internalNodes>
          <leafValues>
            -5.2685308456420898e-01 2.7156308293342590e-01</leafValues></_>
        <_>
          <internalNodes>
            0 -1 118 2119031022 1447690432 -2139025343 964793007
            -268123936 -1845050816 -754876320 -685778545</internalNodes>
          <leafValues>
            -4.2403671145439148e-01 3.1477609276771545e-01</leafValues></_></weakClassifiers></_></stages>
  <features>
    <_>
      <rect>
        0 0 2 4</rect></_>
    <_>
      <rect>
        0 0 2 5</rect></_>
    <_>
      <rect>
        0 0 3 2</rect></_>
    <_>
      <rect>
        0 0 3 3</rect></_>
    <_>
      <rect>
        0 0 4 2</rect></_>
    <_>
      <rect>
        0 0 9 6</rect></_>
    <_>
      <rect>
        0 0 10 6</rect></_>
    <_>
      <rect>
        0 0 11 6</rect></_>
    <_>
      <rect>
        0 0 12 14</rect></_>
    <_>
      <rect>
        0 0 14 6</rect></_>
    <_>
      <rect>
        0 2 2 4</rect></_>
    <_>
      <rect>
        0 3 3 5</rect></_>
    <_>
      <rect>
        0 3 7 12</rect></_>
    <_>
      <rect>
        0 5 2 5</rect></_>
    <_>
      <rect>
        0 7 5 4</rect></_>
    <_>
      <rect>
        0 13 2 5</rect></_>
    <_>
      <rect>
        0 20 4 5</rect></_>
    <_>
      <rect>
        0 21 3 5</rect></_>
    <_>
      <rect>
        0 22 2 3</rect></_>
    <_>
      <rect>
        0 26 5 7</rect></_>
    <_>
      <rect>
        0 29 7 7</rect></_>
    <_>
      <rect>
        0 30 5 6</rect></_>
    <_>
      <rect>
        0 32 4 4</rect></_>
    <_>
      <rect>
        1 0 3 1</rect></_>
    <_>
      <rect>
        1 0 7 7</rect></_>
    <_>
      <rect>
        1 2 1 2</rect></_>
    <_>
      <rect>
        1 9 1 2</rect></_>
    <_>
      <rect>
        1 11 1 2</rect></_>
    <_>
      <rect>
        1 14 1 1</rect></_>
    <_>
      <rect>
        1 17 3 3</rect></_>
    <_>
      <rect>
        1 27 2 2</rect></_>
    <_>
      <rect>
        2 33 5 3</rect></_>
    <_>
      <rect>
        3 18 2 2</rect></_>
    <_>
      <rect>
        3 20 1 2</rect></_>
    <_>
      <rect>
        4 6 7 5</rect></_>
    <_>
      <rect>
        4 26 1 1</rect></_>
    <_>
      <rect>
        5 2 3 5</rect></_>
    <_>
      <rect>
        5 18 1 2</rect></_>
    <_>
      <rect>
        5 21 1 2</rect></_>
    <_>
      <rect>
        5 22 2 1</rect></_>
    <_>
      <rect>
        6 1 6 7</rect></_>
    <_>
      <rect>
        6 16 1 2</rect></_>
    <_>
      <rect>
        6 27 3 6</rect></_>
    <_>
      <rect>
        6 30 4 5</rect></_>
    <_>
      <rect>
        6 39 6 3</rect></_>
    <_>
      <rect>
        7 2 6 11</rect></_>
    <_>
      <rect>
        7 3 11 11</rect></_>
    <_>
      <rect>
        7 7 12 4</rect></_>
    <_>
      <rect>
        7 8 12 3</rect></_>
    <_>
      <rect>
        7 25 8 6</rect></_>
    <_>
      <rect>
        7 33 2 1</rect></_>
    <_>
      <rect>
        7 41 3 3</rect></_>
    <_>
      <rect>
        8 0 2 1</rect></_>
    <_>
      <rect>
        8 0 8 16</rect></_>
    <_>
      <rect>
        8 0 9 7</rect></_>
    <_>
      <rect>
        8 0 11 7</rect></_>
    <_>
      <rect>
        8 0 14 6</rect></_>
    <_>
      <rect>
        8 4 2 2</rect></_>
    <_>
      <rect>
        8 4 7 11</rect></_>
    <_>
      <rect>
        8 21 1 1</rect></_>
    <_>
      <rect>
        8 30 11 4</rect></_>
    <_>
      <rect>
        8 31 5 4</rect></_>
    <_>
      <rect>
        8 38 3 2</rect></_>
    <_>
      <rect>
        9 0 2 1</rect></_>
    <_>
      <rect>
        9 0 6 13</rect></_>
    <_>
      <rect>
        9 5 7 2</rect></_>
    <_>
      <rect>
        9 9 8 2</rect></_>
    <_>
      <rect>
        9 24 9 3</rect></_>
    <_>
      <rect>
        9 24 10 7</rect></_>
    <_>
      <rect>
        10 0 2 1</rect></_>
    <_>
      <rect>
        10 0 7 11</rect></_>
    <_>
      <rect>
        10 0 9 15</rect></_>
    <_>
      <rect>
        10 2 6 10</rect></_>
    <_>
      <rect>
        10 2 8 14</rect></_>
    <_>
      <rect>
        10 8 5 5</rect></_>
    <_>
      <rect>
        10 8 6 3</rect></_>
    <_>
      <rect>
        10 18 1 1</rect></_>
    <_>
      <rect>
        10 24 1 1</rect></_>
    <_>
      <rect>
        10 25 6 4</rect></_>
    <_>
      <rect>
        10 30 11 5</rect></_>
    <_>
      <rect>
        10 37 1 1</rect></_>
    <_>
      <rect>
        11 2 9 3</rect></_>
    <_>
      <rect>
        12 0 9 7</rect></_>
    <_>
      <rect>
        12 1 8 3</rect></_>
    <_>
      <rect>
        12 2 5 12</rect></_>
    <_>
      <rect>
        12 37 2 4</rect></_>
    <_>
      <rect>
        12 39 1 1</rect></_>
    <_>
      <rect>
        12 42 1 1</rect></_>
    <_>
      <rect>
        12 45 3 1</rect></_>
    <_>
      <rect>
        13 0 2 1</rect></_>
    <_>
      <rect>
        13 1 2 1</rect></_>
    <_>
      <rect>
        13 7 7 3</rect></_>
    <_>
      <rect>
        13 42 2 1</rect></_>
    <_>
      <rect>
        14 6 12 9</rect></_>
    <_>
      <rect>
        14 28 6 3</rect></_>
    <_>
      <rect>
        14 42 2 1</rect></_>
    <_>
      <rect>
        15 1 7 10</rect></_>
    <_>
      <rect>
        16 0 11 6</rect></_>
    <_>
      <rect>
        16 41 1 1</rect></_>
    <_>
      <rect>
        17 1 7 10</rect></_>
    <_>
      <rect>
        17 5 8 11</rect></_>
    <_>
      <rect>
        17 10 6 2</rect></_>
    <_>
      <rect>
        17 22 9 7</rect></_>
    <_>
      <rect>
        17 31 6 6</rect></_>
    <_>
      <rect>
        17 46 2 1</rect></_>
    <_>
      <rect>
        18 0 1 2</rect></_>
    <_>
      <rect>
        18 2 7 9</rect></_>
    <_>
      <rect>
        19 8 6 2</rect></_>
    <_>
      <rect>
        19 43 2 1</rect></_>
    <_>
      <rect>
        19 45 1 1</rect></_>
    <_>
      <rect>
        20 0 2 1</rect></_>
    <_>
      <rect>
        20 0 6 12</rect></_>
    <_>
      <rect>
        20 1 1 1</rect></_>
    <_>
      <rect>
        20 44 1 1</rect></_>
    <_>
      <rect>
        21 0 1 3</rect></_>
    <_>
      <rect>
        21 0 6 16</rect></_>
    <_>
      <rect>
        21 40 1 2</rect></_>
    <_>
      <rect>
        22 0 8 7</rect></_>
    <_>
      <rect>
        22 5 8 14</rect></_>
    <_>
      <rect>
        22 30 2 3</rect></_>
    <_>
      <rect>
        22 43 1 1</rect></_>
    <_>
      <rect>
        23 42 3 1</rect></_>
    <_>
      <rect>
        24 1 1 1</rect></_>
    <_>
      <rect>
        24 31 1 1</rect></_>
    <_>
      <rect>
        24 43 2 1</rect></_>
    <_>
      <rect>
        24 43 2 2</rect></_>
    <_>
      <rect>
        25 1 1 2</rect></_>
    <_>
      <rect>
        25 4 7 11</rect></_>
    <_>
      <rect>
        25 32 7 5</rect></_>
    <_>
      <rect>
        26 0 3 1</rect></_>
    <_>
      <rect>
        26 3 2 1</rect></_>
    <_>
      <rect>
        26 10 5 3</rect></_>
    <_>
      <rect>
        26 28 8 6</rect></_>
    <_>
      <rect>
        26 44 2 1</rect></_>
    <_>
      <rect>
        28 34 7 5</rect></_>
    <_>
      <rect>
        29 0 7 14</rect></_>
    <_>
      <rect>
        29 2 5 5</rect></_>
    <_>
      <rect>
        29 3 7 10</rect></_>
    <_>
      <rect>
        29 42 2 1</rect></_>
    <_>
      <rect>
        30 0 2 1</rect></_>
    <_>
      <rect>
        30 0 6 1</rect></_>
    <_>
      <rect>
        31 41 1 1</rect></_>
    <_>
      <rect>
        31 42 2 1</rect></_>
    <_>
      <rect>
        32 0 2 1</rect></_>
    <_>
      <rect>
        32 28 5 5</rect></_>
    <_>
      <rect>
        32 31 6 5</rect></_>
    <_>
      <rect>
        32 40 1 1</rect></_>
    <_>
      <rect>
        33 0 1 1</rect></_>
    <_>
      <rect>
        33 33 2 4</rect></_>
    <_>
      <rect>
        34 40 1 1</rect></_>
    <_>
      <rect>
        34 44 1 1</rect></_>
    <_>
      <rect>
        35 0 1 2</rect></_>
    <_>
      <rect>
        35 0 4 9</rect></_>
    <_>
      <rect>
        35 0 5 6</rect></_>
    <_>
      <rect>
        35 24 5 7</rect></_>
    <_>
      <rect>
        35 31 2 4</rect></_>
    <_>
      <rect>
        37 38 1 1</rect></_>
    <_>
      <rect>
        38 30 4 2</rect></_>
    <_>
      <rect>
        39 20 1 1</rect></_>
    <_>
      <rect>
        40 0 3 1</rect></_>
    <_>
      <rect>
        40 16 2 1</rect></_>
    <_>
      <rect>
        40 18 2 2</rect></_>
    <_>
      <rect>
        40 28 2 2</rect></_>
    <_>
      <rect>
        41 0 3 4</rect></_>
    <_>
      <rect>
        41 4 3 5</rect></_>
    <_>
      <rect>
        41 14 3 7</rect></_>
    <_>
      <rect>
        41 22 2 1</rect></_>
    <_>
      <rect>
        43 8 2 5</rect></_>
    <_>
      <rect>
        43 20 1 1</rect></_>
    <_>
      <rect>
        43 24 1 1</rect></_>
    <_>
      <rect>
        43 30 1 1</rect></_>
    <_>
      <rect>
        44 2 2 5</rect></_>
    <_>
      <rect>
        44 7 2 3</rect></_>
    <_>
      <rect>
        45 14 1 1</rect></_></features></cascade>
</opencv_storage>
